<?xml version="1.0"?>
<opencv_storage>
<cascade>
  <stageType>BOOST</stageType>
  <featureType>HAAR</featureType>
  <height>24</height>
  <width>24</width>
  <stageParams>
    <boostType>GAB</boostType>
    <minHitRate>9.9500000476837158e-01</minHitRate>
    <maxFalseAlarm>5.0000000000000000e-01</maxFalseAlarm>
    <weightTrimRate>9.4999998807907104e-01</weightTrimRate>
    <maxDepth>1</maxDepth>
    <maxWeakCount>100</maxWeakCount></stageParams>
  <featureParams>
    <maxCatCount>0</maxCatCount>
    <featSize>1</featSize>
    <mode>BASIC</mode></featureParams>
  <stageNum>14</stageNum>
  <stages>
    <!-- stage 0 -->
    <_>
      <maxWeakCount>3</maxWeakCount>
      <stageThreshold>-1.2788691520690918e+00</stageThreshold>
      <weakClassifiers>
        <_>
          <internalNodes>
            0 -1 5 4.1842617094516754e-02</internalNodes>
          <leafValues>
            -9.7208374738693237e-01 8.5135138034820557e-01</leafValues></_>
        <_>
          <internalNodes>
            0 -1 4 1.1072637140750885e-01</internalNodes>
          <leafValues>
            -9.2835223674774170e-01 7.0317524671554565e-01</leafValues></_>
        <_>
          <internalNodes>
            0 -1 49 1.7803583294153214e-02</internalNodes>
          <leafValues>
            -8.7677764892578125e-01 6.2156683206558228e-01</leafValues></_></weakClassifiers></_>
    <!-- stage 1 -->
    <_>
      <maxWeakCount>3</maxWeakCount>
      <stageThreshold>-1.1857004165649414e+00</stageThreshold>
      <weakClassifiers>
        <_>
          <internalNodes>
            0 -1 21 -1.6568568348884583e-01</internalNodes>
          <leafValues>
            7.9310345649719238e-01 -9.0917873382568359e-01</leafValues></_>
        <_>
          <internalNodes>
            0 -1 3 8.0495119094848633e-02</internalNodes>
          <leafValues>
            -9.0123647451400757e-01 4.7971999645233154e-01</leafValues></_>
        <_>
          <internalNodes>
            0 -1 8 1.1425137519836426e-01</internalNodes>
          <leafValues>
            -7.5624161958694458e-01 6.8490481376647949e-01</leafValues></_></weakClassifiers></_>
    <!-- stage 2 -->
    <_>
      <maxWeakCount>2</maxWeakCount>
      <stageThreshold>-6.4183336496353149e-01</stageThreshold>
      <weakClassifiers>
        <_>
          <internalNodes>
            0 -1 9 3.9081925153732300e-01</internalNodes>
          <leafValues>
            -8.9210021495819092e-01 6.8141591548919678e-01</leafValues></_>
        <_>
          <internalNodes>
            0 -1 13 -2.4570614099502563e-02</internalNodes>
          <leafValues>
            2.5026682019233704e-01 -9.6396547555923462e-01</leafValues></_></weakClassifiers></_>
    <!-- stage 3 -->
    <_>
      <maxWeakCount>3</maxWeakCount>
      <stageThreshold>-1.4376286268234253e+00</stageThreshold>
      <weakClassifiers>
        <_>
          <internalNodes>
            0 -1 41 7.7964358031749725e-02</internalNodes>
          <leafValues>
            -8.4230053424835205e-01 8.0821919441223145e-01</leafValues></_>
        <_>
          <internalNodes>
            0 -1 7 3.2526552677154541e-01</internalNodes>
          <leafValues>
            -9.2335122823715210e-01 2.0742458105087280e-01</leafValues></_>
        <_>
          <internalNodes>
            0 -1 48 -3.6498779081739485e-05</internalNodes>
          <leafValues>
            3.2802319526672363e-01 -9.8865574598312378e-01</leafValues></_></weakClassifiers></_>
    <!-- stage 4 -->
    <_>
      <maxWeakCount>3</maxWeakCount>
      <stageThreshold>-1.4465092420578003e+00</stageThreshold>
      <weakClassifiers>
        <_>
          <internalNodes>
            0 -1 48 -2.4467881303280592e-04</internalNodes>
          <leafValues>
            -9.9289941787719727e-01 -3.2679740339517593e-02</leafValues></_>
        <_>
          <internalNodes>
            0 -1 20 -4.5160537958145142e-01</internalNodes>
          <leafValues>
            6.0356986522674561e-01 -7.5377780199050903e-01</leafValues></_>
        <_>
          <internalNodes>
            0 -1 6 1.6749072074890137e-01</internalNodes>
          <leafValues>
            -9.7809463739395142e-01 3.0016794800758362e-01</leafValues></_></weakClassifiers></_>
    <!-- stage 5 -->
    <_>
      <maxWeakCount>4</maxWeakCount>
      <stageThreshold>-1.3013776540756226e+00</stageThreshold>
      <weakClassifiers>
        <_>
          <internalNodes>
            0 -1 22 -8.7102703750133514e-02</internalNodes>
          <leafValues>
            8.1578946113586426e-01 -8.4744185209274292e-01</leafValues></_>
        <_>
          <internalNodes>
            0 -1 48 -2.4451658828184009e-04</internalNodes>
          <leafValues>
            -9.5467925071716309e-01 2.1310168504714966e-01</leafValues></_>
        <_>
          <internalNodes>
            0 -1 10 1.6925934702157974e-02</internalNodes>
          <leafValues>
            -9.0460079908370972e-01 2.8959012031555176e-01</leafValues></_>
        <_>
          <internalNodes>
            0 -1 32 -3.5810514236800373e-04</internalNodes>
          <leafValues>
            2.3756335675716400e-01 -1.</leafValues></_></weakClassifiers></_>
    <!-- stage 6 -->
    <_>
      <maxWeakCount>4</maxWeakCount>
      <stageThreshold>-1.2596005201339722e+00</stageThreshold>
      <weakClassifiers>
        <_>
          <internalNodes>
            0 -1 18 -5.9033822268247604e-02</internalNodes>
          <leafValues>
            5.0000000000000000e-01 -8.5023695230484009e-01</leafValues></_>
        <_>
          <internalNodes>
            0 -1 2 3.3079214394092560e-02</internalNodes>
          <leafValues>
            -9.1719764471054077e-01 7.7361315488815308e-02</leafValues></_>
        <_>
          <internalNodes>
            0 -1 23 4.9743014387786388e-03</internalNodes>
          <leafValues>
            -1. 2.1042269468307495e-01</leafValues></_>
        <_>
          <internalNodes>
            0 -1 38 -3.0174583662301302e-03</internalNodes>
          <leafValues>
            -1. 2.9741141200065613e-01</leafValues></_></weakClassifiers></_>
    <!-- stage 7 -->
    <_>
      <maxWeakCount>4</maxWeakCount>
      <stageThreshold>-2.4606604576110840e+00</stageThreshold>
      <weakClassifiers>
        <_>
          <internalNodes>
            0 -1 28 -2.5627058930695057e-03</internalNodes>
          <leafValues>
            -2.0000000298023224e-01 -9.7253435850143433e-01</leafValues></_>
        <_>
          <internalNodes>
            0 -1 33 -8.4098131628707051e-04</internalNodes>
          <leafValues>
            7.5675554573535919e-02 -9.3354874849319458e-01</leafValues></_>
        <_>
          <internalNodes>
            0 -1 1 2.4605672806501389e-02</internalNodes>
          <leafValues>
            -8.3343642950057983e-01 3.2487729191780090e-01</leafValues></_>
        <_>
          <internalNodes>
            0 -1 29 -3.7553708534687757e-04</internalNodes>
          <leafValues>
            2.7885904908180237e-01 -9.7091251611709595e-01</leafValues></_></weakClassifiers></_>
    <!-- stage 8 -->
    <_>
      <maxWeakCount>4</maxWeakCount>
      <stageThreshold>-1.3675059080123901e+00</stageThreshold>
      <weakClassifiers>
        <_>
          <internalNodes>
            0 -1 16 3.6364972591400146e-02</internalNodes>
          <leafValues>
            -8.1090909242630005e-01 8.4313726425170898e-01</leafValues></_>
        <_>
          <internalNodes>
            0 -1 0 1.6830533742904663e-02</internalNodes>
          <leafValues>
            -8.5746204853057861e-01 1.4239494502544403e-01</leafValues></_>
        <_>
          <internalNodes>
            0 -1 47 -3.8352209958247840e-04</internalNodes>
          <leafValues>
            -9.5590996742248535e-01 3.1262868642807007e-01</leafValues></_>
        <_>
          <internalNodes>
            0 -1 36 6.0729647520929575e-04</internalNodes>
          <leafValues>
            2.5691828131675720e-01 -9.1618996858596802e-01</leafValues></_></weakClassifiers></_>
    <!-- stage 9 -->
    <_>
      <maxWeakCount>5</maxWeakCount>
      <stageThreshold>-1.7286255359649658e+00</stageThreshold>
      <weakClassifiers>
        <_>
          <internalNodes>
            0 -1 35 1.4528620988130569e-02</internalNodes>
          <leafValues>
            -8.2086795568466187e-01 5.8823531866073608e-01</leafValues></_>
        <_>
          <internalNodes>
            0 -1 37 -1.8332786567043513e-05</internalNodes>
          <leafValues>
            1.5351511538028717e-01 -8.1054252386093140e-01</leafValues></_>
        <_>
          <internalNodes>
            0 -1 17 1.9196129869669676e-05</internalNodes>
          <leafValues>
            -9.7597503662109375e-01 2.3168274760246277e-01</leafValues></_>
        <_>
          <internalNodes>
            0 -1 26 1.9468310711090453e-05</internalNodes>
          <leafValues>
            -6.0750544071197510e-01 4.8089697957038879e-01</leafValues></_>
        <_>
          <internalNodes>
            0 -1 30 -1.9234784413129091e-03</internalNodes>
          <leafValues>
            -1. 2.7860769629478455e-01</leafValues></_></weakClassifiers></_>
    <!-- stage 10 -->
    <_>
      <maxWeakCount>3</maxWeakCount>
      <stageThreshold>-1.2589147090911865e+00</stageThreshold>
      <weakClassifiers>
        <_>
          <internalNodes>
            0 -1 12 -9.4195413589477539e-01</internalNodes>
          <leafValues>
            6.4516127109527588e-01 -8.1634527444839478e-01</leafValues></_>
        <_>
          <internalNodes>
            0 -1 25 -1.9036253797821701e-04</internalNodes>
          <leafValues>
            2.9972031712532043e-01 -8.0974221229553223e-01</leafValues></_>
        <_>
          <internalNodes>
            0 -1 24 1.9708701074705459e-05</internalNodes>
          <leafValues>
            -6.8659716844558716e-01 3.6717280745506287e-01</leafValues></_></weakClassifiers></_>
    <!-- stage 11 -->
    <_>
      <maxWeakCount>4</maxWeakCount>
      <stageThreshold>-1.4701693058013916e+00</stageThreshold>
      <weakClassifiers>
        <_>
          <internalNodes>
            0 -1 34 6.6777397878468037e-03</internalNodes>
          <leafValues>
            -8.1386864185333252e-01 7.8181821107864380e-01</leafValues></_>
        <_>
          <internalNodes>
            0 -1 24 2.0407982810866088e-04</internalNodes>
          <leafValues>
            9.5037870109081268e-02 -9.8187196254730225e-01</leafValues></_>
        <_>
          <internalNodes>
            0 -1 40 -6.0913548804819584e-04</internalNodes>
          <leafValues>
            1.9291016459465027e-01 -9.7516888380050659e-01</leafValues></_>
        <_>
          <internalNodes>
            0 -1 46 8.2175240095239133e-05</internalNodes>
          <leafValues>
            2.4700918793678284e-01 -9.4424867630004883e-01</leafValues></_></weakClassifiers></_>
    <!-- stage 12 -->
    <_>
      <maxWeakCount>6</maxWeakCount>
      <stageThreshold>-1.7764868736267090e+00</stageThreshold>
      <weakClassifiers>
        <_>
          <internalNodes>
            0 -1 39 -5.3764553740620613e-03</internalNodes>
          <leafValues>
            9.4999998807907104e-01 -7.9837983846664429e-01</leafValues></_>
        <_>
          <internalNodes>
            0 -1 15 1.9496264940244146e-05</internalNodes>
          <leafValues>
            -9.2719531059265137e-01 5.0430577248334885e-02</leafValues></_>
        <_>
          <internalNodes>
            0 -1 11 3.9728544652462006e-04</internalNodes>
          <leafValues>
            -8.5398018360137939e-01 2.3630842566490173e-01</leafValues></_>
        <_>
          <internalNodes>
            0 -1 19 -5.9569385484792292e-05</internalNodes>
          <leafValues>
            3.2901597023010254e-01 -8.6892783641815186e-01</leafValues></_>
        <_>
          <internalNodes>
            0 -1 43 -5.9790140949189663e-04</internalNodes>
          <leafValues>
            -1. 1.8000511825084686e-01</leafValues></_>
        <_>
          <internalNodes>
            0 -1 27 1.3861537910997868e-02</internalNodes>
          <leafValues>
            -5.7592338323593140e-01 4.0650516748428345e-01</leafValues></_></weakClassifiers></_>
    <!-- stage 13 -->
    <_>
      <maxWeakCount>5</maxWeakCount>
      <stageThreshold>-1.1843569278717041e+00</stageThreshold>
      <weakClassifiers>
        <_>
          <internalNodes>
            0 -1 44 -5.2594961598515511e-03</internalNodes>
          <leafValues>
            8.7999999523162842e-01 -8.1108081340789795e-01</leafValues></_>
        <_>
          <internalNodes>
            0 -1 14 7.8275658190250397e-02</internalNodes>
          <leafValues>
            2.2786516696214676e-02 -9.0950572490692139e-01</leafValues></_>
        <_>
          <internalNodes>
            0 -1 42 -1.8646114040166140e-03</internalNodes>
          <leafValues>
            -9.6808642148971558e-01 2.0729178190231323e-01</leafValues></_>
        <_>
          <internalNodes>
            0 -1 45 -7.5594009831547737e-04</internalNodes>
          <leafValues>
            2.7208206057548523e-01 -9.2129623889923096e-01</leafValues></_>
        <_>
          <internalNodes>
            0 -1 31 -8.0666402936913073e-05</internalNodes>
          <leafValues>
            -7.7023148536682129e-01 3.1794178485870361e-01</leafValues></_></weakClassifiers></_></stages>
  <features>
    <_>
      <rects>
        <_>
          0 0 6 11 -1.</_>
        <_>
          3 0 3 11 2.</_></rects>
      <tilted>0</tilted></_>
    <_>
      <rects>
        <_>
          0 0 6 23 -1.</_>
        <_>
          3 0 3 23 2.</_></rects>
      <tilted>0</tilted></_>
    <_>
      <rects>
        <_>
          0 0 8 12 -1.</_>
        <_>
          4 0 4 12 2.</_></rects>
      <tilted>0</tilted></_>
    <_>
      <rects>
        <_>
          0 0 21 7 -1.</_>
        <_>
          7 0 7 7 3.</_></rects>
      <tilted>0</tilted></_>
    <_>
      <rects>
        <_>
          0 0 14 20 -1.</_>
        <_>
          7 0 7 20 2.</_></rects>
      <tilted>0</tilted></_>
    <_>
      <rects>
        <_>
          0 1 8 13 -1.</_>
        <_>
          4 1 4 13 2.</_></rects>
      <tilted>0</tilted></_>
    <_>
      <rects>
        <_>
          0 4 9 20 -1.</_>
        <_>
          0 14 9 10 2.</_></rects>
      <tilted>0</tilted></_>
    <_>
      <rects>
        <_>
          0 4 18 20 -1.</_>
        <_>
          0 14 18 10 2.</_></rects>
      <tilted>0</tilted></_>
    <_>
      <rects>
        <_>
          0 5 5 16 -1.</_>
        <_>
          0 13 5 8 2.</_></rects>
      <tilted>0</tilted></_>
    <_>
      <rects>
        <_>
          0 9 18 14 -1.</_>
        <_>
          0 16 18 7 2.</_></rects>
      <tilted>0</tilted></_>
    <_>
      <rects>
        <_>
          0 16 18 8 -1.</_>
        <_>
          9 16 9 8 2.</_></rects>
      <tilted>0</tilted></_>
    <_>
      <rects>
        <_>
          0 21 24 3 -1.</_>
        <_>
          12 21 12 3 2.</_></rects>
      <tilted>0</tilted></_>
    <_>
      <rects>
        <_>
          1 1 23 21 -1.</_>
        <_>
          1 8 23 7 3.</_></rects>
      <tilted>0</tilted></_>
    <_>
      <rects>
        <_>
          2 0 20 6 -1.</_>
        <_>
          2 3 20 3 2.</_></rects>
      <tilted>0</tilted></_>
    <_>
      <rects>
        <_>
          2 8 18 8 -1.</_>
        <_>
          11 8 9 8 2.</_></rects>
      <tilted>0</tilted></_>
    <_>
      <rects>
        <_>
          4 0 2 1 -1.</_>
        <_>
          5 0 1 1 2.</_></rects>
      <tilted>0</tilted></_>
    <_>
      <rects>
        <_>
          4 14 16 2 -1.</_>
        <_>
          4 15 16 1 2.</_></rects>
      <tilted>0</tilted></_>
    <_>
      <rects>
        <_>
          6 0 9 1 -1.</_>
        <_>
          9 0 3 1 3.</_></rects>
      <tilted>0</tilted></_>
    <_>
      <rects>
        <_>
          6 0 18 6 -1.</_>
        <_>
          6 0 9 3 2.</_>
        <_>
          15 3 9 3 2.</_></rects>
      <tilted>0</tilted></_>
    <_>
      <rects>
        <_>
          6 23 18 1 -1.</_>
        <_>
          15 23 9 1 2.</_></rects>
      <tilted>0</tilted></_>
    <_>
      <rects>
        <_>
          7 2 17 18 -1.</_>
        <_>
          7 8 17 6 3.</_></rects>
      <tilted>0</tilted></_>
    <_>
      <rects>
        <_>
          8 1 5 21 -1.</_>
        <_>
          8 8 5 7 3.</_></rects>
      <tilted>0</tilted></_>
    <_>
      <rects>
        <_>
          8 4 16 3 -1.</_>
        <_>
          16 4 8 3 2.</_></rects>
      <tilted>0</tilted></_>
    <_>
      <rects>
        <_>
          8 13 15 10 -1.</_>
        <_>
          13 13 5 10 3.</_></rects>
      <tilted>0</tilted></_>
    <_>
      <rects>
        <_>
          9 0 2 2 -1.</_>
        <_>
          9 1 2 1 2.</_></rects>
      <tilted>0</tilted></_>
    <_>
      <rects>
        <_>
          9 20 11 4 -1.</_>
        <_>
          9 22 11 2 2.</_></rects>
      <tilted>0</tilted></_>
    <_>
      <rects>
        <_>
          10 1 2 2 -1.</_>
        <_>
          10 2 2 1 2.</_></rects>
      <tilted>0</tilted></_>
    <_>
      <rects>
        <_>
          10 4 12 8 -1.</_>
        <_>
          14 4 4 8 3.</_></rects>
      <tilted>0</tilted></_>
    <_>
      <rects>
        <_>
          10 20 14 3 -1.</_>
        <_>
          17 20 7 3 2.</_></rects>
      <tilted>0</tilted></_>
    <_>
      <rects>
        <_>
          10 22 14 1 -1.</_>
        <_>
          17 22 7 1 2.</_></rects>
      <tilted>0</tilted></_>
    <_>
      <rects>
        <_>
          11 20 10 4 -1.</_>
        <_>
          11 22 10 2 2.</_></rects>
      <tilted>0</tilted></_>
    <_>
      <rects>
        <_>
          12 0 2 2 -1.</_>
        <_>
          13 0 1 2 2.</_></rects>
      <tilted>0</tilted></_>
    <_>
      <rects>
        <_>
          12 0 10 1 -1.</_>
        <_>
          17 0 5 1 2.</_></rects>
      <tilted>0</tilted></_>
    <_>
      <rects>
        <_>
          13 19 10 3 -1.</_>
        <_>
          18 19 5 3 2.</_></rects>
      <tilted>0</tilted></_>
    <_>
      <rects>
        <_>
          14 5 3 5 -1.</_>
        <_>
          15 5 1 5 3.</_></rects>
      <tilted>0</tilted></_>
    <_>
      <rects>
        <_>
          14 14 6 2 -1.</_>
        <_>
          14 15 6 1 2.</_></rects>
      <tilted>0</tilted></_>
    <_>
      <rects>
        <_>
          14 17 8 4 -1.</_>
        <_>
          14 17 4 2 2.</_>
        <_>
          18 19 4 2 2.</_></rects>
      <tilted>0</tilted></_>
    <_>
      <rects>
        <_>
          14 18 2 2 -1.</_>
        <_>
          14 18 1 1 2.</_>
        <_>
          15 19 1 1 2.</_></rects>
      <tilted>0</tilted></_>
    <_>
      <rects>
        <_>
          14 19 8 4 -1.</_>
        <_>
          18 19 4 4 2.</_></rects>
      <tilted>0</tilted></_>
    <_>
      <rects>
        <_>
          17 13 1 3 -1.</_>
        <_>
          17 14 1 1 3.</_></rects>
      <tilted>0</tilted></_>
    <_>
      <rects>
        <_>
          18 19 6 3 -1.</_>
        <_>
          21 19 3 3 2.</_></rects>
      <tilted>0</tilted></_>
    <_>
      <rects>
        <_>
          19 6 2 18 -1.</_>
        <_>
          19 15 2 9 2.</_></rects>
      <tilted>0</tilted></_>
    <_>
      <rects>
        <_>
          19 19 4 5 -1.</_>
        <_>
          21 19 2 5 2.</_></rects>
      <tilted>0</tilted></_>
    <_>
      <rects>
        <_>
          19 22 5 2 -1.</_>
        <_>
          19 23 5 1 2.</_></rects>
      <tilted>0</tilted></_>
    <_>
      <rects>
        <_>
          20 15 4 2 -1.</_>
        <_>
          20 15 2 1 2.</_>
        <_>
          22 16 2 1 2.</_></rects>
      <tilted>0</tilted></_>
    <_>
      <rects>
        <_>
          20 18 4 6 -1.</_>
        <_>
          22 18 2 6 2.</_></rects>
      <tilted>0</tilted></_>
    <_>
      <rects>
        <_>
          22 22 1 2 -1.</_>
        <_>
          22 23 1 1 2.</_></rects>
      <tilted>0</tilted></_>
    <_>
      <rects>
        <_>
          22 22 2 2 -1.</_>
        <_>
          23 22 1 2 2.</_></rects>
      <tilted>0</tilted></_>
    <_>
      <rects>
        <_>
          22 23 2 1 -1.</_>
        <_>
          23 23 1 1 2.</_></rects>
      <tilted>0</tilted></_>
    <_>
      <rects>
        <_>
          23 4 1 14 -1.</_>
        <_>
          23 11 1 7 2.</_></rects>
      <tilted>0</tilted></_></features></cascade>
</opencv_storage>
